0.06846766657209324,0.05054140489659066,-0.4222285760343555,0.5763766874705413,0.03517667046150848,-0.3057228673811266,-0.0838708808549049,-0.23818897701667194,-0.849282068148158,-0.15189183910545256,-0.7414532533042943,0.03767865655008684,0.20477148930639022,-0.3717187654337492,0.02317505990907118,0.3199233025089354,
-0.09363496950584138,0.33589086679845387,0.27511836864490463,0.12817079373271695,0.3654718543685614,0.18454896050323635,-0.2524813910511138,0.49665447078335057,0.22743814726685943,-0.7733028414285005,0.27421078812989574,0.3773829400348297,0.7275657849168014,0.15621570866798679,0.11314615684166202,-0.6144198006300594,
-0.40488306072120517,-0.16110867255881747,-0.0826209786202381,0.19559853087280754,-0.06991773043648887,-0.03770328724219493,-0.2688237186417944,-0.5709867068896056,-0.022921215548822742,0.1530327442208074,-0.45028549946814483,0.42820424652886274,-0.11306795726540764,0.14154897393525773,-0.3122780648526731,-0.3498927620232317,
0.251002636834445,-0.08327998925616499,-0.038387648552177904,0.2374087539296329,0.21364131994982252,0.21672970520800428,-0.012640144519860763,-0.022786964553962067,-0.39025579871827343,0.3620453239921606,0.28238356141870913,-0.23147188302957666,0.3219181756884715,-0.09038797102766243,0.2470818884492148,-0.40681777546867126,
-0.252641595529264,0.06433563926278019,0.26650125207747205,0.23725679625900495,-0.389867160258875,0.03940343797783049,-0.26310456865161674,0.1402929073095662,0.012324574081409558,-0.04093497682673356,0.08457120489261226,-0.27235351510125577,-0.17354297432544105,-0.5721114664715341,-0.3131187407861446,0.2608493648673539,
-0.2978839778525373,0.33182381671246514,-0.35162382387215374,0.5083150434561547,0.24121054053294605,-0.33118582972579413,0.06266145170126816,-0.2733644646269182,0.35228495254042425,-0.17886779335504716,0.0977655753053102,-0.5927151898419107,-0.416548330201167,-0.20229168243209372,-0.28395672333907657,0.31221404792773677,
-0.3138980436392379,-0.04400841651722554,0.13735468924302824,-0.33817258394311434,0.5474629383584748,0.4746253533857988,-0.23269409683828998,-0.7923503317555607,0.08925014943196127,0.9321099101342163,0.2712670920448981,0.6723298954181888,0.3662748221831248,-0.30935913588561237,0.041433722876966395,0.22758885688027122,
0.009988635163159953,0.08227202760435814,0.07015401003752197,0.46101425382422523,-0.15416024339528267,0.16065017882052424,0.41374354274269654,0.2028983943402033,0.4567899390838195,0.04957495831686176,0.2858171520764765,0.22737782553740749,-0.17753123257604386,0.20017698720005828,-0.3596099837549266,0.2677462843025956,
break
1.31816069911912,
-0.029631807838903623,
-0.1432474507264345,
0.2892754853355753,
-0.12010512879020527,
-0.1618543359583665,
0.09614257362477231,
0.2641082329070054,
-0.42488038780358967,
-0.380247382141214,
-0.4973865582780902,
-0.13652335865206655,
0.1259026240724513,
0.013571070480198441,
0.06932486479279959,
-0.0645448570103608,

