-0.443056683906777,-0.9148386278748526,-2.4949973425271446,-7.492505545384979,9.675861938248941,1.8459891365828565,2.122249339685331,1.880781976212214,2.5447676560622057,-0.5831930467791159,4.386970905684647,2.063377245679188,-0.1645593152552397,
-0.0017832195558828978,2.447516264724179,1.231794786649492,0.4562186536670143,0.16940299126371994,0.6409430619589918,2.1846093561284516,0.9045580060660694,5.4842621131347045,-0.49253711568865816,3.446472456359477,0.6713868098371994,0.4994909631819611,
-0.4994103724756803,-0.11709481640460272,-0.04349235564534825,0.059914037457183655,-0.017309676552767175,-0.055386039389212,-0.3265593245355154,-0.4058167212256406,-0.43621714756497004,-0.06535473256171026,0.001110555481435574,-0.3474432153695852,-0.12067682519658508,
0.46290299411902525,0.3733369848630923,-0.213095694442622,0.09047978501194193,0.02896253591204118,0.052822074767497736,-0.7105808369780418,-1.2299367145725117,-0.2799213926744729,-0.2009160097785508,0.02663627045238301,-1.4362967838971863,0.03117527578137947,
-0.019221147682236817,0.16611032401269712,0.2069889171968623,-0.1076982341988244,-0.035444037994491875,-2.733719211786915,0.03260374925303973,-1.4205554653260115,0.013167082830850534,0.5936495614756521,0.4163994834807602,1.3833932145936612,0.24089553272552752,
0.2054489750068884,0.5123881574508564,0.6113538280121741,0.07212141952674975,0.06076300703551874,-0.15289021784660864,2.6032389173190893,0.7139854697304764,-0.5861633442273761,-0.057632382919919095,0.37343245258660845,0.7869471847075661,3.194415779218413,
0.3889197046076024,0.537591330288933,0.9424820295044667,6.331775296103841,9.047160907047452,-2.171737319113869,-0.15697506965199892,-0.8491508608492486,0.31187605802974305,3.030921133303584,-4.507066932855389,-0.99036113340207,0.3105126598430522,
0.2707371262838749,0.07386813277294679,0.2985771995169948,0.3921410584123838,-0.3799902335896964,-0.38205571215910694,-0.37060889322835355,-0.3768469690961619,-0.014496427622217811,0.1293846066335419,-0.04642331046127279,0.3435400318339391,-0.4443437537620928,
break
3.4271371752162203,
-0.6793954393387635,
0.4745161144991843,
-2.528715650175497,
-4.2517793041654555,
0.3515130650454604,
0.5312118730649514,
-0.39979005734834117,
0.6549150050309211,
0.9080599223416191,
0.36745416867827796,
-0.36106481240379845,
0.052185000946161686,

